## LambdaMART
## No. of trees = 1000
## No. of leaves = 10
## No. of threshold candidates = 256
## Learning rate = 0.1
## Stop early = 100

<ensemble>
	<tree id="1" weight="0.1">
		<split>
			<feature> 8 </feature>
			<threshold> 0.0390625 </threshold>
			<split pos="left">
				<feature> 10 </feature>
				<threshold> 0.0 </threshold>
				<split pos="left">
					<feature> 8 </feature>
					<threshold> 0.0078125 </threshold>
					<split pos="left">
						<output> -0.7531773447990417 </output>
					</split>
					<split pos="right">
						<output> -0.3090342581272125 </output>
					</split>
				</split>
				<split pos="right">
					<output> -0.03516586869955063 </output>
				</split>
			</split>
			<split pos="right">
				<feature> 7 </feature>
				<threshold> 2.0994542 </threshold>
				<split pos="left">
					<output> 0.7516489624977112 </output>
				</split>
				<split pos="right">
					<feature> 9 </feature>
					<threshold> 195.29297 </threshold>
					<split pos="left">
						<feature> 4 </feature>
						<threshold> 3.0 </threshold>
						<split pos="left">
							<feature> 10 </feature>
							<threshold> 0.0 </threshold>
							<split pos="left">
								<feature> 8 </feature>
								<threshold> 0.15625 </threshold>
								<split pos="left">
									<output> -0.0716288685798645 </output>
								</split>
								<split pos="right">
									<output> 0.23696358501911163 </output>
								</split>
							</split>
							<split pos="right">
								<output> 0.5462560653686523 </output>
							</split>
						</split>
						<split pos="right">
							<feature> 9 </feature>
							<threshold> 156.23438 </threshold>
							<split pos="left">
								<output> 0.707089364528656 </output>
							</split>
							<split pos="right">
								<output> 0.32924771308898926 </output>
							</split>
						</split>
					</split>
					<split pos="right">
						<output> -0.12412054091691971 </output>
					</split>
				</split>
			</split>
		</split>
	</tree>
	<tree id="2" weight="0.1">
		<split>
			<feature> 8 </feature>
			<threshold> 0.0390625 </threshold>
			<split pos="left">
				<output> -0.7836790084838867 </output>
			</split>
			<split pos="right">
				<feature> 7 </feature>
				<threshold> 2.0994542 </threshold>
				<split pos="left">
					<feature> 8 </feature>
					<threshold> 0.3671875 </threshold>
					<split pos="left">
						<feature> 8 </feature>
						<threshold> 0.15625 </threshold>
						<split pos="left">
							<output> 0.5328733921051025 </output>
						</split>
						<split pos="right">
							<output> 1.0739437341690063 </output>
						</split>
					</split>
					<split pos="right">
						<output> 1.4042478799819946 </output>
					</split>
				</split>
				<split pos="right">
					<feature> 9 </feature>
					<threshold> 195.29297 </threshold>
					<split pos="left">
						<feature> 4 </feature>
						<threshold> 3.0 </threshold>
						<split pos="left">
							<output> 0.1522141546010971 </output>
						</split>
						<split pos="right">
							<feature> 9 </feature>
							<threshold> 156.23438 </threshold>
							<split pos="left">
								<feature> 8 </feature>
								<threshold> 0.3984375 </threshold>
								<split pos="left">
									<feature> 7 </feature>
									<threshold> 4.008043 </threshold>
									<split pos="left">
										<output> 0.8670850396156311 </output>
									</split>
									<split pos="right">
										<output> 0.601142406463623 </output>
									</split>
								</split>
								<split pos="right">
									<output> 1.0521427392959595 </output>
								</split>
							</split>
							<split pos="right">
								<output> 0.44385698437690735 </output>
							</split>
						</split>
					</split>
					<split pos="right">
						<output> -0.45472678542137146 </output>
					</split>
				</split>
			</split>
		</split>
	</tree>
	<tree id="3" weight="0.1">
		<split>
			<feature> 8 </feature>
			<threshold> 0.0390625 </threshold>
			<split pos="left">
				<output> -0.7762845158576965 </output>
			</split>
			<split pos="right">
				<feature> 7 </feature>
				<threshold> 2.0994542 </threshold>
				<split pos="left">
					<feature> 8 </feature>
					<threshold> 0.15625 </threshold>
					<split pos="left">
						<output> 0.36700087785720825 </output>
					</split>
					<split pos="right">
						<feature> 8 </feature>
						<threshold> 0.3671875 </threshold>
						<split pos="left">
							<output> 0.9630725979804993 </output>
						</split>
						<split pos="right">
							<output> 1.2643482685089111 </output>
						</split>
					</split>
				</split>
				<split pos="right">
					<feature> 9 </feature>
					<threshold> 195.29297 </threshold>
					<split pos="left">
						<feature> 4 </feature>
						<threshold> 3.0 </threshold>
						<split pos="left">
							<output> 0.09619691222906113 </output>
						</split>
						<split pos="right">
							<feature> 7 </feature>
							<threshold> 3.2718728 </threshold>
							<split pos="left">
								<output> 0.8442896604537964 </output>
							</split>
							<split pos="right">
								<feature> 9 </feature>
								<threshold> 156.23438 </threshold>
								<split pos="left">
									<feature> 8 </feature>
									<threshold> 0.3984375 </threshold>
									<split pos="left">
										<output> 0.6025230288505554 </output>
									</split>
									<split pos="right">
										<output> 0.8825841546058655 </output>
									</split>
								</split>
								<split pos="right">
									<output> 0.38666316866874695 </output>
								</split>
							</split>
						</split>
					</split>
					<split pos="right">
						<output> -0.3387141823768616 </output>
					</split>
				</split>
			</split>
		</split>
	</tree>
	<tree id="4" weight="0.1">
		<split>
			<feature> 8 </feature>
			<threshold> 0.046875 </threshold>
			<split pos="left">
				<output> -0.6253916621208191 </output>
			</split>
			<split pos="right">
				<feature> 7 </feature>
				<threshold> 2.0994542 </threshold>
				<split pos="left">
					<feature> 8 </feature>
					<threshold> 0.15625 </threshold>
					<split pos="left">
						<output> 0.36952686309814453 </output>
					</split>
					<split pos="right">
						<feature> 8 </feature>
						<threshold> 0.3671875 </threshold>
						<split pos="left">
							<output> 0.8601020574569702 </output>
						</split>
						<split pos="right">
							<output> 1.134889006614685 </output>
						</split>
					</split>
				</split>
				<split pos="right">
					<feature> 9 </feature>
					<threshold> 195.29297 </threshold>
					<split pos="left">
						<feature> 4 </feature>
						<threshold> 3.0 </threshold>
						<split pos="left">
							<output> 0.09558034688234329 </output>
						</split>
						<split pos="right">
							<feature> 7 </feature>
							<threshold> 3.2718728 </threshold>
							<split pos="left">
								<output> 0.7696678042411804 </output>
							</split>
							<split pos="right">
								<feature> 8 </feature>
								<threshold> 0.3984375 </threshold>
								<split pos="left">
									<feature> 9 </feature>
									<threshold> 156.23438 </threshold>
									<split pos="left">
										<output> 0.5555194616317749 </output>
									</split>
									<split pos="right">
										<output> 0.30787423253059387 </output>
									</split>
								</split>
								<split pos="right">
									<output> 0.722698450088501 </output>
								</split>
							</split>
						</split>
					</split>
					<split pos="right">
						<output> -0.3046737611293793 </output>
					</split>
				</split>
			</split>
		</split>
	</tree>
	<tree id="5" weight="0.1">
		<split>
			<feature> 8 </feature>
			<threshold> 0.046875 </threshold>
			<split pos="left">
				<output> -0.5877055525779724 </output>
			</split>
			<split pos="right">
				<feature> 7 </feature>
				<threshold> 1.6359383 </threshold>
				<split pos="left">
					<output> 0.7384961843490601 </output>
				</split>
				<split pos="right">
					<feature> 9 </feature>
					<threshold> 195.29297 </threshold>
					<split pos="left">
						<feature> 4 </feature>
						<threshold> 3.0 </threshold>
						<split pos="left">
							<feature> 10 </feature>
							<threshold> 0.0 </threshold>
							<split pos="left">
								<output> 0.014392072334885597 </output>
							</split>
							<split pos="right">
								<output> 0.5117437243461609 </output>
							</split>
						</split>
						<split pos="right">
							<feature> 7 </feature>
							<threshold> 3.2718728 </threshold>
							<split pos="left">
								<feature> 8 </feature>
								<threshold> 0.21875 </threshold>
								<split pos="left">
									<output> 0.5972750782966614 </output>
								</split>
								<split pos="right">
									<output> 0.9788558483123779 </output>
								</split>
							</split>
							<split pos="right">
								<feature> 8 </feature>
								<threshold> 0.3984375 </threshold>
								<split pos="left">
									<feature> 9 </feature>
									<threshold> 156.23438 </threshold>
									<split pos="left">
										<output> 0.49672701954841614 </output>
									</split>
									<split pos="right">
										<output> 0.26482605934143066 </output>
									</split>
								</split>
								<split pos="right">
									<output> 0.6654259562492371 </output>
								</split>
							</split>
						</split>
					</split>
					<split pos="right">
						<output> -0.24324524402618408 </output>
					</split>
				</split>
			</split>
		</split>
	</tree>
	<tree id="6" weight="0.1">
		<split>
			<feature> 8 </feature>
			<threshold> 0.09375 </threshold>
			<split pos="left">
				<feature> 8 </feature>
				<threshold> 0.0078125 </threshold>
				<split pos="left">
					<output> -0.7384760975837708 </output>
				</split>
				<split pos="right">
					<feature> 10 </feature>
					<threshold> 0.0 </threshold>
					<split pos="left">
						<output> -0.21487537026405334 </output>
					</split>
					<split pos="right">
						<output> 0.24892404675483704 </output>
					</split>
				</split>
			</split>
			<split pos="right">
				<feature> 7 </feature>
				<threshold> 2.0994542 </threshold>
				<split pos="left">
					<feature> 8 </feature>
					<threshold> 0.3671875 </threshold>
					<split pos="left">
						<output> 0.6474867463111877 </output>
					</split>
					<split pos="right">
						<output> 0.9806434512138367 </output>
					</split>
				</split>
				<split pos="right">
					<feature> 9 </feature>
					<threshold> 195.29297 </threshold>
					<split pos="left">
						<feature> 4 </feature>
						<threshold> 3.0 </threshold>
						<split pos="left">
							<output> 0.15710708498954773 </output>
						</split>
						<split pos="right">
							<feature> 7 </feature>
							<threshold> 3.2718728 </threshold>
							<split pos="left">
								<output> 0.7424512505531311 </output>
							</split>
							<split pos="right">
								<feature> 9 </feature>
								<threshold> 156.23438 </threshold>
								<split pos="left">
									<output> 0.5748818516731262 </output>
								</split>
								<split pos="right">
									<output> 0.33534902334213257 </output>
								</split>
							</split>
						</split>
					</split>
					<split pos="right">
						<output> -0.22582869231700897 </output>
					</split>
				</split>
			</split>
		</split>
	</tree>
	<tree id="7" weight="0.1">
		<split>
			<feature> 8 </feature>
			<threshold> 0.09375 </threshold>
			<split pos="left">
				<feature> 8 </feature>
				<threshold> 0.0078125 </threshold>
				<split pos="left">
					<output> -0.6976776719093323 </output>
				</split>
				<split pos="right">
					<feature> 10 </feature>
					<threshold> 0.0 </threshold>
					<split pos="left">
						<output> -0.2262965887784958 </output>
					</split>
					<split pos="right">
						<output> 0.23611222207546234 </output>
					</split>
				</split>
			</split>
			<split pos="right">
				<feature> 7 </feature>
				<threshold> 2.0994542 </threshold>
				<split pos="left">
					<feature> 8 </feature>
					<threshold> 0.3671875 </threshold>
					<split pos="left">
						<output> 0.5874940752983093 </output>
					</split>
					<split pos="right">
						<output> 0.8943482041358948 </output>
					</split>
				</split>
				<split pos="right">
					<feature> 9 </feature>
					<threshold> 195.29297 </threshold>
					<split pos="left">
						<feature> 4 </feature>
						<threshold> 3.0 </threshold>
						<split pos="left">
							<output> 0.14111840724945068 </output>
						</split>
						<split pos="right">
							<feature> 7 </feature>
							<threshold> 3.2718728 </threshold>
							<split pos="left">
								<output> 0.6688545942306519 </output>
							</split>
							<split pos="right">
								<feature> 9 </feature>
								<threshold> 156.23438 </threshold>
								<split pos="left">
									<output> 0.5185496807098389 </output>
								</split>
								<split pos="right">
									<output> 0.3032319247722626 </output>
								</split>
							</split>
						</split>
					</split>
					<split pos="right">
						<output> -0.23408617079257965 </output>
					</split>
				</split>
			</split>
		</split>
	</tree>
	<tree id="8" weight="0.1">
		<split>
			<feature> 8 </feature>
			<threshold> 0.09375 </threshold>
			<split pos="left">
				<feature> 8 </feature>
				<threshold> 0.0078125 </threshold>
				<split pos="left">
					<output> -0.6374740600585938 </output>
				</split>
				<split pos="right">
					<feature> 10 </feature>
					<threshold> 0.0 </threshold>
					<split pos="left">
						<output> -0.2112474888563156 </output>
					</split>
					<split pos="right">
						<output> 0.20702019333839417 </output>
					</split>
				</split>
			</split>
			<split pos="right">
				<feature> 7 </feature>
				<threshold> 2.0994542 </threshold>
				<split pos="left">
					<output> 0.6131335496902466 </output>
				</split>
				<split pos="right">
					<feature> 9 </feature>
					<threshold> 195.29297 </threshold>
					<split pos="left">
						<feature> 4 </feature>
						<threshold> 3.0 </threshold>
						<split pos="left">
							<output> 0.1327734887599945 </output>
						</split>
						<split pos="right">
							<feature> 7 </feature>
							<threshold> 3.2718728 </threshold>
							<split pos="left">
								<output> 0.6014807224273682 </output>
							</split>
							<split pos="right">
								<feature> 9 </feature>
								<threshold> 156.23438 </threshold>
								<split pos="left">
									<feature> 8 </feature>
									<threshold> 0.3984375 </threshold>
									<split pos="left">
										<output> 0.43767979741096497 </output>
									</split>
									<split pos="right">
										<output> 0.6067365407943726 </output>
									</split>
								</split>
								<split pos="right">
									<output> 0.2757534980773926 </output>
								</split>
							</split>
						</split>
					</split>
					<split pos="right">
						<output> -0.20894049108028412 </output>
					</split>
				</split>
			</split>
		</split>
	</tree>
	<tree id="9" weight="0.1">
		<split>
			<feature> 8 </feature>
			<threshold> 0.09375 </threshold>
			<split pos="left">
				<feature> 10 </feature>
				<threshold> 0.0 </threshold>
				<split pos="left">
					<feature> 8 </feature>
					<threshold> 0.0078125 </threshold>
					<split pos="left">
						<output> -0.6962789297103882 </output>
					</split>
					<split pos="right">
						<output> -0.19738122820854187 </output>
					</split>
				</split>
				<split pos="right">
					<output> 0.11976929008960724 </output>
				</split>
			</split>
			<split pos="right">
				<feature> 7 </feature>
				<threshold> 2.0994542 </threshold>
				<split pos="left">
					<output> 0.5523748397827148 </output>
				</split>
				<split pos="right">
					<feature> 10 </feature>
					<threshold> 0.0 </threshold>
					<split pos="left">
						<feature> 9 </feature>
						<threshold> 195.29297 </threshold>
						<split pos="left">
							<feature> 4 </feature>
							<threshold> 3.0 </threshold>
							<split pos="left">
								<output> -0.017386164516210556 </output>
							</split>
							<split pos="right">
								<feature> 7 </feature>
								<threshold> 2.9446862 </threshold>
								<split pos="left">
									<output> 0.5120735168457031 </output>
								</split>
								<split pos="right">
									<output> 0.28540441393852234 </output>
								</split>
							</split>
						</split>
						<split pos="right">
							<output> -0.2705132067203522 </output>
						</split>
					</split>
					<split pos="right">
						<feature> 7 </feature>
						<threshold> 3.6535904 </threshold>
						<split pos="left">
							<output> 0.6767650842666626 </output>
						</split>
						<split pos="right">
							<output> 0.3325333893299103 </output>
						</split>
					</split>
				</split>
			</split>
		</split>
	</tree>
	<tree id="10" weight="0.1">
		<split>
			<feature> 8 </feature>
			<threshold> 0.09375 </threshold>
			<split pos="left">
				<feature> 10 </feature>
				<threshold> 0.0 </threshold>
				<split pos="left">
					<output> -0.4069201946258545 </output>
				</split>
				<split pos="right">
					<output> 0.09521321207284927 </output>
				</split>
			</split>
			<split pos="right">
				<feature> 7 </feature>
				<threshold> 2.4266407 </threshold>
				<split pos="left">
					<feature> 10 </feature>
					<threshold> 0.0 </threshold>
					<split pos="left">
						<output> 0.4179762899875641 </output>
					</split>
					<split pos="right">
						<output> 0.7591768503189087 </output>
					</split>
				</split>
				<split pos="right">
					<feature> 10 </feature>
					<threshold> 0.0 </threshold>
					<split pos="left">
						<feature> 9 </feature>
						<threshold> 234.35156 </threshold>
						<split pos="left">
							<feature> 4 </feature>
							<threshold> 3.0 </threshold>
							<split pos="left">
								<output> -0.09639580547809601 </output>
							</split>
							<split pos="right">
								<output> 0.2600061595439911 </output>
							</split>
						</split>
						<split pos="right">
							<output> -0.43656009435653687 </output>
						</split>
					</split>
					<split pos="right">
						<feature> 9 </feature>
						<threshold> 156.23438 </threshold>
						<split pos="left">
							<feature> 4 </feature>
							<threshold> 3.0 </threshold>
							<split pos="left">
								<output> 0.4323212504386902 </output>
							</split>
							<split pos="right">
								<output> 0.5585451722145081 </output>
							</split>
						</split>
						<split pos="right">
							<output> 0.20799943804740906 </output>
						</split>
					</split>
				</split>
			</split>
		</split>
	</tree>
	<tree id="11" weight="0.1">
		<split>
			<feature> 8 </feature>
			<threshold> 0.09375 </threshold>
			<split pos="left">
				<feature> 8 </feature>
				<threshold> 0.015625 </threshold>
				<split pos="left">
					<output> -0.48032087087631226 </output>
				</split>
				<split pos="right">
					<feature> 10 </feature>
					<threshold> 0.0 </threshold>
					<split pos="left">
						<output> -0.13429877161979675 </output>
					</split>
					<split pos="right">
						<output> 0.1805833876132965 </output>
					</split>
				</split>
			</split>
			<split pos="right">
				<feature> 7 </feature>
				<threshold> 2.4266407 </threshold>
				<split pos="left">
					<output> 0.461841344833374 </output>
				</split>
				<split pos="right">
					<feature> 10 </feature>
					<threshold> 0.0 </threshold>
					<split pos="left">
						<feature> 9 </feature>
						<threshold> 234.35156 </threshold>
						<split pos="left">
							<feature> 4 </feature>
							<threshold> 3.0 </threshold>
							<split pos="left">
								<output> -0.08476021140813828 </output>
							</split>
							<split pos="right">
								<output> 0.24348755180835724 </output>
							</split>
						</split>
						<split pos="right">
							<output> -0.4173465073108673 </output>
						</split>
					</split>
					<split pos="right">
						<feature> 9 </feature>
						<threshold> 156.23438 </threshold>
						<split pos="left">
							<feature> 4 </feature>
							<threshold> 3.0 </threshold>
							<split pos="left">
								<output> 0.39699381589889526 </output>
							</split>
							<split pos="right">
								<output> 0.5191249251365662 </output>
							</split>
						</split>
						<split pos="right">
							<output> 0.17940965294837952 </output>
						</split>
					</split>
				</split>
			</split>
		</split>
	</tree>
	<tree id="12" weight="0.1">
		<split>
			<feature> 8 </feature>
			<threshold> 0.09375 </threshold>
			<split pos="left">
				<feature> 8 </feature>
				<threshold> 0.015625 </threshold>
				<split pos="left">
					<output> -0.44925931096076965 </output>
				</split>
				<split pos="right">
					<feature> 10 </feature>
					<threshold> 0.0 </threshold>
					<split pos="left">
						<output> -0.11927619576454163 </output>
					</split>
					<split pos="right">
						<output> 0.16676895320415497 </output>
					</split>
				</split>
			</split>
			<split pos="right">
				<feature> 7 </feature>
				<threshold> 2.5629685 </threshold>
				<split pos="left">
					<feature> 10 </feature>
					<threshold> 0.0 </threshold>
					<split pos="left">
						<output> 0.32961803674697876 </output>
					</split>
					<split pos="right">
						<output> 0.6621818542480469 </output>
					</split>
				</split>
				<split pos="right">
					<feature> 10 </feature>
					<threshold> 0.0 </threshold>
					<split pos="left">
						<feature> 9 </feature>
						<threshold> 273.41016 </threshold>
						<split pos="left">
							<feature> 4 </feature>
							<threshold> 3.0 </threshold>
							<split pos="left">
								<output> -0.1098768338561058 </output>
							</split>
							<split pos="right">
								<output> 0.1901271790266037 </output>
							</split>
						</split>
						<split pos="right">
							<output> -0.5010905265808105 </output>
						</split>
					</split>
					<split pos="right">
						<feature> 9 </feature>
						<threshold> 156.23438 </threshold>
						<split pos="left">
							<output> 0.4279329180717468 </output>
						</split>
						<split pos="right">
							<output> 0.1523667573928833 </output>
						</split>
					</split>
				</split>
			</split>
		</split>
	</tree>
	<tree id="13" weight="0.1">
		<split>
			<feature> 8 </feature>
			<threshold> 0.109375 </threshold>
			<split pos="left">
				<feature> 10 </feature>
				<threshold> 0.0 </threshold>
				<split pos="left">
					<feature> 8 </feature>
					<threshold> 0.0078125 </threshold>
					<split pos="left">
						<output> -0.5432400107383728 </output>
					</split>
					<split pos="right">
						<output> -0.13130754232406616 </output>
					</split>
				</split>
				<split pos="right">
					<feature> 9 </feature>
					<threshold> 156.23438 </threshold>
					<split pos="left">
						<output> 0.205588698387146 </output>
					</split>
					<split pos="right">
						<output> -0.16176147758960724 </output>
					</split>
				</split>
			</split>
			<split pos="right">
				<feature> 7 </feature>
				<threshold> 2.5629685 </threshold>
				<split pos="left">
					<output> 0.4113500118255615 </output>
				</split>
				<split pos="right">
					<feature> 10 </feature>
					<threshold> 0.0 </threshold>
					<split pos="left">
						<feature> 9 </feature>
						<threshold> 273.41016 </threshold>
						<split pos="left">
							<feature> 4 </feature>
							<threshold> 3.0 </threshold>
							<split pos="left">
								<output> -0.08443724364042282 </output>
							</split>
							<split pos="right">
								<output> 0.18804334104061127 </output>
							</split>
						</split>
						<split pos="right">
							<output> -0.4767870008945465 </output>
						</split>
					</split>
					<split pos="right">
						<feature> 7 </feature>
						<threshold> 4.1443706 </threshold>
						<split pos="left">
							<output> 0.4804895222187042 </output>
						</split>
						<split pos="right">
							<output> 0.21772779524326324 </output>
						</split>
					</split>
				</split>
			</split>
		</split>
	</tree>
	<tree id="14" weight="0.1">
		<split>
			<feature> 8 </feature>
			<threshold> 0.109375 </threshold>
			<split pos="left">
				<feature> 10 </feature>
				<threshold> 0.0 </threshold>
				<split pos="left">
					<feature> 8 </feature>
					<threshold> 0.015625 </threshold>
					<split pos="left">
						<output> -0.4762543737888336 </output>
					</split>
					<split pos="right">
						<output> -0.09919983893632889 </output>
					</split>
				</split>
				<split pos="right">
					<feature> 9 </feature>
					<threshold> 156.23438 </threshold>
					<split pos="left">
						<output> 0.19129596650600433 </output>
					</split>
					<split pos="right">
						<output> -0.17506475746631622 </output>
					</split>
				</split>
			</split>
			<split pos="right">
				<feature> 7 </feature>
				<threshold> 2.5629685 </threshold>
				<split pos="left">
					<output> 0.3728572130203247 </output>
				</split>
				<split pos="right">
					<feature> 10 </feature>
					<threshold> 0.0 </threshold>
					<split pos="left">
						<feature> 9 </feature>
						<threshold> 273.41016 </threshold>
						<split pos="left">
							<feature> 5 </feature>
							<threshold> 3.0 </threshold>
							<split pos="left">
								<output> -0.3748915195465088 </output>
							</split>
							<split pos="right">
								<output> 0.11433136463165283 </output>
							</split>
						</split>
						<split pos="right">
							<output> -0.43617886304855347 </output>
						</split>
					</split>
					<split pos="right">
						<feature> 7 </feature>
						<threshold> 4.1443706 </threshold>
						<split pos="left">
							<output> 0.45039382576942444 </output>
						</split>
						<split pos="right">
							<output> 0.19625896215438843 </output>
						</split>
					</split>
				</split>
			</split>
		</split>
	</tree>
	<tree id="15" weight="0.1">
		<split>
			<feature> 8 </feature>
			<threshold> 0.1171875 </threshold>
			<split pos="left">
				<feature> 10 </feature>
				<threshold> 0.0 </threshold>
				<split pos="left">
					<feature> 4 </feature>
					<threshold> 2.0 </threshold>
					<split pos="left">
						<output> -0.5251058340072632 </output>
					</split>
					<split pos="right">
						<output> -0.17436997592449188 </output>
					</split>
				</split>
				<split pos="right">
					<feature> 9 </feature>
					<threshold> 156.23438 </threshold>
					<split pos="left">
						<output> 0.1745540052652359 </output>
					</split>
					<split pos="right">
						<output> -0.15860003232955933 </output>
					</split>
				</split>
			</split>
			<split pos="right">
				<feature> 10 </feature>
				<threshold> 0.0 </threshold>
				<split pos="left">
					<feature> 7 </feature>
					<threshold> 1.3905473 </threshold>
					<split pos="left">
						<output> 0.3716055154800415 </output>
					</split>
					<split pos="right">
						<feature> 7 </feature>
						<threshold> 3.2718728 </threshold>
						<split pos="left">
							<output> 0.20440272986888885 </output>
						</split>
						<split pos="right">
							<output> -0.046578433364629745 </output>
						</split>
					</split>
				</split>
				<split pos="right">
					<feature> 7 </feature>
					<threshold> 2.5629685 </threshold>
					<split pos="left">
						<output> 0.5830004811286926 </output>
					</split>
					<split pos="right">
						<feature> 7 </feature>
						<threshold> 4.1443706 </threshold>
						<split pos="left">
							<output> 0.4242772161960602 </output>
						</split>
						<split pos="right">
							<output> 0.18541105091571808 </output>
						</split>
					</split>
				</split>
			</split>
		</split>
	</tree>
	<tree id="16" weight="0.1">
		<split>
			<feature> 8 </feature>
			<threshold> 0.1484375 </threshold>
			<split pos="left">
				<feature> 4 </feature>
				<threshold> 2.0 </threshold>
				<split pos="left">
					<output> -0.437251478433609 </output>
				</split>
				<split pos="right">
					<feature> 9 </feature>
					<threshold> 117.17578 </threshold>
					<split pos="left">
						<feature> 8 </feature>
						<threshold> 0.0234375 </threshold>
						<split pos="left">
							<output> -0.049265217036008835 </output>
						</split>
						<split pos="right">
							<output> 0.2692369818687439 </output>
						</split>
					</split>
					<split pos="right">
						<feature> 9 </feature>
						<threshold> 273.41016 </threshold>
						<split pos="left">
							<feature> 4 </feature>
							<threshold> 3.0 </threshold>
							<split pos="left">
								<output> -0.29398858547210693 </output>
							</split>
							<split pos="right">
								<output> 0.006067821756005287 </output>
							</split>
						</split>
						<split pos="right">
							<output> -0.48508307337760925 </output>
						</split>
					</split>
				</split>
			</split>
			<split pos="right">
				<feature> 7 </feature>
				<threshold> 1.6359383 </threshold>
				<split pos="left">
					<output> 0.4221036732196808 </output>
				</split>
				<split pos="right">
					<feature> 10 </feature>
					<threshold> 0.0 </threshold>
					<split pos="left">
						<output> 0.08085159212350845 </output>
					</split>
					<split pos="right">
						<feature> 7 </feature>
						<threshold> 4.1443706 </threshold>
						<split pos="left">
							<output> 0.4610879719257355 </output>
						</split>
						<split pos="right">
							<output> 0.1891157329082489 </output>
						</split>
					</split>
				</split>
			</split>
		</split>
	</tree>
	<tree id="17" weight="0.1">
		<split>
			<feature> 8 </feature>
			<threshold> 0.1171875 </threshold>
			<split pos="left">
				<feature> 8 </feature>
				<threshold> 0.015625 </threshold>
				<split pos="left">
					<output> -0.3242630362510681 </output>
				</split>
				<split pos="right">
					<feature> 9 </feature>
					<threshold> 156.23438 </threshold>
					<split pos="left">
						<feature> 4 </feature>
						<threshold> 3.0 </threshold>
						<split pos="left">
							<output> -0.02425374835729599 </output>
						</split>
						<split pos="right">
							<output> 0.2840084731578827 </output>
						</split>
					</split>
					<split pos="right">
						<output> -0.16666117310523987 </output>
					</split>
				</split>
			</split>
			<split pos="right">
				<feature> 9 </feature>
				<threshold> 156.23438 </threshold>
				<split pos="left">
					<feature> 4 </feature>
					<threshold> 3.0 </threshold>
					<split pos="left">
						<feature> 5 </feature>
						<threshold> 3.0 </threshold>
						<split pos="left">
							<output> -0.2255232185125351 </output>
						</split>
						<split pos="right">
							<output> 0.2442680299282074 </output>
						</split>
					</split>
					<split pos="right">
						<feature> 7 </feature>
						<threshold> 2.5629685 </threshold>
						<split pos="left">
							<output> 0.5641522407531738 </output>
						</split>
						<split pos="right">
							<feature> 10 </feature>
							<threshold> 0.0 </threshold>
							<split pos="left">
								<output> 0.2680359482765198 </output>
							</split>
							<split pos="right">
								<output> 0.3972797989845276 </output>
							</split>
						</split>
					</split>
				</split>
				<split pos="right">
					<output> -0.022504542022943497 </output>
				</split>
			</split>
		</split>
	</tree>
	<tree id="18" weight="0.1">
		<split>
			<feature> 8 </feature>
			<threshold> 0.1484375 </threshold>
			<split pos="left">
				<feature> 10 </feature>
				<threshold> 0.0 </threshold>
				<split pos="left">
					<feature> 4 </feature>
					<threshold> 2.0 </threshold>
					<split pos="left">
						<output> -0.4648066759109497 </output>
					</split>
					<split pos="right">
						<feature> 9 </feature>
						<threshold> 117.17578 </threshold>
						<split pos="left">
							<output> 0.03404630348086357 </output>
						</split>
						<split pos="right">
							<output> -0.226115420460701 </output>
						</split>
					</split>
				</split>
				<split pos="right">
					<feature> 9 </feature>
					<threshold> 156.23438 </threshold>
					<split pos="left">
						<feature> 4 </feature>
						<threshold> 2.0 </threshold>
						<split pos="left">
							<output> -0.160238578915596 </output>
						</split>
						<split pos="right">
							<output> 0.24535207450389862 </output>
						</split>
					</split>
					<split pos="right">
						<output> -0.11156563460826874 </output>
					</split>
				</split>
			</split>
			<split pos="right">
				<feature> 9 </feature>
				<threshold> 156.23438 </threshold>
				<split pos="left">
					<feature> 4 </feature>
					<threshold> 3.0 </threshold>
					<split pos="left">
						<output> 0.18713557720184326 </output>
					</split>
					<split pos="right">
						<feature> 7 </feature>
						<threshold> 2.4811718 </threshold>
						<split pos="left">
							<output> 0.5743317604064941 </output>
						</split>
						<split pos="right">
							<output> 0.3419049382209778 </output>
						</split>
					</split>
				</split>
				<split pos="right">
					<output> -0.010396547615528107 </output>
				</split>
			</split>
		</split>
	</tree>
	<tree id="19" weight="0.1">
		<split>
			<feature> 8 </feature>
			<threshold> 0.0703125 </threshold>
			<split pos="left">
				<feature> 4 </feature>
				<threshold> 2.0 </threshold>
				<split pos="left">
					<output> -0.42295604944229126 </output>
				</split>
				<split pos="right">
					<feature> 9 </feature>
					<threshold> 117.17578 </threshold>
					<split pos="left">
						<output> 0.07514127343893051 </output>
					</split>
					<split pos="right">
						<output> -0.22581757605075836 </output>
					</split>
				</split>
			</split>
			<split pos="right">
				<feature> 10 </feature>
				<threshold> 0.0 </threshold>
				<split pos="left">
					<feature> 7 </feature>
					<threshold> 3.2718728 </threshold>
					<split pos="left">
						<output> 0.15154463052749634 </output>
					</split>
					<split pos="right">
						<output> -0.07143362611532211 </output>
					</split>
				</split>
				<split pos="right">
					<feature> 7 </feature>
					<threshold> 2.5629685 </threshold>
					<split pos="left">
						<output> 0.44756069779396057 </output>
					</split>
					<split pos="right">
						<feature> 9 </feature>
						<threshold> 273.41016 </threshold>
						<split pos="left">
							<feature> 19 </feature>
							<threshold> 0.0 </threshold>
							<split pos="left">
								<feature> 7 </feature>
								<threshold> 4.1443706 </threshold>
								<split pos="left">
									<output> 0.3850509226322174 </output>
								</split>
								<split pos="right">
									<output> 0.2345791608095169 </output>
								</split>
							</split>
							<split pos="right">
								<output> 0.04599735885858536 </output>
							</split>
						</split>
						<split pos="right">
							<output> -0.3329475522041321 </output>
						</split>
					</split>
				</split>
			</split>
		</split>
	</tree>
	<tree id="20" weight="0.1">
		<split>
			<feature> 10 </feature>
			<threshold> 0.0 </threshold>
			<split pos="left">
				<feature> 8 </feature>
				<threshold> 0.0234375 </threshold>
				<split pos="left">
					<output> -0.33146601915359497 </output>
				</split>
				<split pos="right">
					<feature> 9 </feature>
					<threshold> 156.23438 </threshold>
					<split pos="left">
						<feature> 4 </feature>
						<threshold> 3.0 </threshold>
						<split pos="left">
							<output> 0.012644140981137753 </output>
						</split>
						<split pos="right">
							<output> 0.2819168269634247 </output>
						</split>
					</split>
					<split pos="right">
						<output> -0.129976287484169 </output>
					</split>
				</split>
			</split>
			<split pos="right">
				<feature> 8 </feature>
				<threshold> 0.109375 </threshold>
				<split pos="left">
					<feature> 9 </feature>
					<threshold> 234.35156 </threshold>
					<split pos="left">
						<feature> 4 </feature>
						<threshold> 2.0 </threshold>
						<split pos="left">
							<output> -0.16434329748153687 </output>
						</split>
						<split pos="right">
							<output> 0.1657404601573944 </output>
						</split>
					</split>
					<split pos="right">
						<output> -0.3177659213542938 </output>
					</split>
				</split>
				<split pos="right">
					<feature> 7 </feature>
					<threshold> 3.2718728 </threshold>
					<split pos="left">
						<output> 0.4017864763736725 </output>
					</split>
					<split pos="right">
						<feature> 9 </feature>
						<threshold> 273.41016 </threshold>
						<split pos="left">
							<output> 0.23620977997779846 </output>
						</split>
						<split pos="right">
							<output> -0.341482013463974 </output>
						</split>
					</split>
				</split>
			</split>
		</split>
	</tree>
	<tree id="21" weight="0.1">
		<split>
			<feature> 10 </feature>
			<threshold> 0.0 </threshold>
			<split pos="left">
				<feature> 8 </feature>
				<threshold> 0.0234375 </threshold>
				<split pos="left">
					<output> -0.3050679862499237 </output>
				</split>
				<split pos="right">
					<feature> 5 </feature>
					<threshold> 3.0 </threshold>
					<split pos="left">
						<output> -0.3324830234050751 </output>
					</split>
					<split pos="right">
						<feature> 9 </feature>
						<threshold> 156.23438 </threshold>
						<split pos="left">
							<feature> 4 </feature>
							<threshold> 3.0 </threshold>
							<split pos="left">
								<output> 0.08036204427480698 </output>
							</split>
							<split pos="right">
								<output> 0.2813050150871277 </output>
							</split>
						</split>
						<split pos="right">
							<output> -0.10646598786115646 </output>
						</split>
					</split>
				</split>
			</split>
			<split pos="right">
				<feature> 8 </feature>
				<threshold> 0.109375 </threshold>
				<split pos="left">
					<output> 0.06803764402866364 </output>
				</split>
				<split pos="right">
					<feature> 7 </feature>
					<threshold> 2.7265618 </threshold>
					<split pos="left">
						<output> 0.3971867263317108 </output>
					</split>
					<split pos="right">
						<feature> 9 </feature>
						<threshold> 273.41016 </threshold>
						<split pos="left">
							<feature> 19 </feature>
							<threshold> 0.0 </threshold>
							<split pos="left">
								<output> 0.30346348881721497 </output>
							</split>
							<split pos="right">
								<output> 0.030196089297533035 </output>
							</split>
						</split>
						<split pos="right">
							<output> -0.301116406917572 </output>
						</split>
					</split>
				</split>
			</split>
		</split>
	</tree>
	<tree id="22" weight="0.1">
		<split>
			<feature> 8 </feature>
			<threshold> 0.203125 </threshold>
			<split pos="left">
				<feature> 4 </feature>
				<threshold> 2.0 </threshold>
				<split pos="left">
					<output> -0.3376730680465698 </output>
				</split>
				<split pos="right">
					<feature> 9 </feature>
					<threshold> 117.17578 </threshold>
					<split pos="left">
						<feature> 4 </feature>
						<threshold> 3.0 </threshold>
						<split pos="left">
							<output> 0.06419588625431061 </output>
						</split>
						<split pos="right">
							<output> 0.31440767645835876 </output>
						</split>
					</split>
					<split pos="right">
						<feature> 9 </feature>
						<threshold> 273.41016 </threshold>
						<split pos="left">
							<feature> 37 </feature>
							<threshold> 200.21759 </threshold>
							<split pos="left">
								<output> -0.20657849311828613 </output>
							</split>
							<split pos="right">
								<output> 0.05458611622452736 </output>
							</split>
						</split>
						<split pos="right">
							<output> -0.4256359040737152 </output>
						</split>
					</split>
				</split>
			</split>
			<split pos="right">
				<feature> 7 </feature>
				<threshold> 3.2718728 </threshold>
				<split pos="left">
					<output> 0.3030475974082947 </output>
				</split>
				<split pos="right">
					<feature> 9 </feature>
					<threshold> 273.41016 </threshold>
					<split pos="left">
						<feature> 4 </feature>
						<threshold> 3.0 </threshold>
						<split pos="left">
							<output> -0.01642712764441967 </output>
						</split>
						<split pos="right">
							<output> 0.23646219074726105 </output>
						</split>
					</split>
					<split pos="right">
						<output> -0.43094441294670105 </output>
					</split>
				</split>
			</split>
		</split>
	</tree>
	<tree id="23" weight="0.1">
		<split>
			<feature> 10 </feature>
			<threshold> 0.0 </threshold>
			<split pos="left">
				<feature> 4 </feature>
				<threshold> 2.0 </threshold>
				<split pos="left">
					<output> -0.31582173705101013 </output>
				</split>
				<split pos="right">
					<feature> 9 </feature>
					<threshold> 117.17578 </threshold>
					<split pos="left">
						<output> 0.14068840444087982 </output>
					</split>
					<split pos="right">
						<feature> 9 </feature>
						<threshold> 312.46875 </threshold>
						<split pos="left">
							<feature> 37 </feature>
							<threshold> 161.17464 </threshold>
							<split pos="left">
								<output> -0.2843271791934967 </output>
							</split>
							<split pos="right">
								<feature> 8 </feature>
								<threshold> 0.0234375 </threshold>
								<split pos="left">
									<output> -0.21709898114204407 </output>
								</split>
								<split pos="right">
									<output> 0.07673826813697815 </output>
								</split>
							</split>
						</split>
						<split pos="right">
							<output> -0.49018770456314087 </output>
						</split>
					</split>
				</split>
			</split>
			<split pos="right">
				<feature> 8 </feature>
				<threshold> 0.1171875 </threshold>
				<split pos="left">
					<feature> 9 </feature>
					<threshold> 156.23438 </threshold>
					<split pos="left">
						<output> 0.12686003744602203 </output>
					</split>
					<split pos="right">
						<output> -0.11894780397415161 </output>
					</split>
				</split>
				<split pos="right">
					<feature> 7 </feature>
					<threshold> 4.1443706 </threshold>
					<split pos="left">
						<output> 0.31311315298080444 </output>
					</split>
					<split pos="right">
						<output> 0.11744514107704163 </output>
					</split>
				</split>
			</split>
		</split>
	</tree>
	<tree id="24" weight="0.1">
		<split>
			<feature> 8 </feature>
			<threshold> 0.1484375 </threshold>
			<split pos="left">
				<feature> 4 </feature>
				<threshold> 3.0 </threshold>
				<split pos="left">
					<feature> 9 </feature>
					<threshold> 156.23438 </threshold>
					<split pos="left">
						<feature> 4 </feature>
						<threshold> 2.0 </threshold>
						<split pos="left">
							<output> -0.28299829363822937 </output>
						</split>
						<split pos="right">
							<output> -0.03333202004432678 </output>
						</split>
					</split>
					<split pos="right">
						<output> -0.4205591082572937 </output>
					</split>
				</split>
				<split pos="right">
					<feature> 9 </feature>
					<threshold> 117.17578 </threshold>
					<split pos="left">
						<output> 0.2871273159980774 </output>
					</split>
					<split pos="right">
						<output> -0.058605995029211044 </output>
					</split>
				</split>
			</split>
			<split pos="right">
				<feature> 9 </feature>
				<threshold> 117.17578 </threshold>
				<split pos="left">
					<feature> 4 </feature>
					<threshold> 2.0 </threshold>
					<split pos="left">
						<output> -0.0957736074924469 </output>
					</split>
					<split pos="right">
						<output> 0.36617740988731384 </output>
					</split>
				</split>
				<split pos="right">
					<feature> 9 </feature>
					<threshold> 312.46875 </threshold>
					<split pos="left">
						<feature> 4 </feature>
						<threshold> 3.0 </threshold>
						<split pos="left">
							<output> -0.08329111337661743 </output>
						</split>
						<split pos="right">
							<output> 0.16981099545955658 </output>
						</split>
					</split>
					<split pos="right">
						<output> -0.4588496685028076 </output>
					</split>
				</split>
			</split>
		</split>
	</tree>
	<tree id="25" weight="0.1">
		<split>
			<feature> 8 </feature>
			<threshold> 0.203125 </threshold>
			<split pos="left">
				<feature> 4 </feature>
				<threshold> 3.0 </threshold>
				<split pos="left">
					<feature> 9 </feature>
					<threshold> 156.23438 </threshold>
					<split pos="left">
						<feature> 4 </feature>
						<threshold> 2.0 </threshold>
						<split pos="left">
							<output> -0.26644980907440186 </output>
						</split>
						<split pos="right">
							<feature> 10 </feature>
							<threshold> 0.0 </threshold>
							<split pos="left">
								<output> -0.07610930502414703 </output>
							</split>
							<split pos="right">
								<output> 0.1312277466058731 </output>
							</split>
						</split>
					</split>
					<split pos="right">
						<output> -0.3876885771751404 </output>
					</split>
				</split>
				<split pos="right">
					<feature> 9 </feature>
					<threshold> 156.23438 </threshold>
					<split pos="left">
						<feature> 3 </feature>
						<threshold> 217.0 </threshold>
						<split pos="left">
							<output> 0.09874992817640305 </output>
						</split>
						<split pos="right">
							<output> 0.31977781653404236 </output>
						</split>
					</split>
					<split pos="right">
						<output> -0.1054820790886879 </output>
					</split>
				</split>
			</split>
			<split pos="right">
				<feature> 9 </feature>
				<threshold> 117.17578 </threshold>
				<split pos="left">
					<output> 0.2999216914176941 </output>
				</split>
				<split pos="right">
					<feature> 9 </feature>
					<threshold> 312.46875 </threshold>
					<split pos="left">
						<output> 0.09518597275018692 </output>
					</split>
					<split pos="right">
						<output> -0.45917436480522156 </output>
					</split>
				</split>
			</split>
		</split>
	</tree>
	<tree id="26" weight="0.1">
		<split>
			<feature> 8 </feature>
			<threshold> 0.0234375 </threshold>
			<split pos="left">
				<feature> 19 </feature>
				<threshold> 0.0 </threshold>
				<split pos="left">
					<output> -0.2832621932029724 </output>
				</split>
				<split pos="right">
					<output> 0.015600983053445816 </output>
				</split>
			</split>
			<split pos="right">
				<feature> 9 </feature>
				<threshold> 117.17578 </threshold>
				<split pos="left">
					<feature> 4 </feature>
					<threshold> 3.0 </threshold>
					<split pos="left">
						<feature> 4 </feature>
						<threshold> 2.0 </threshold>
						<split pos="left">
							<output> -0.10489939898252487 </output>
						</split>
						<split pos="right">
							<output> 0.2035612016916275 </output>
						</split>
					</split>
					<split pos="right">
						<output> 0.312800794839859 </output>
					</split>
				</split>
				<split pos="right">
					<feature> 9 </feature>
					<threshold> 312.46875 </threshold>
					<split pos="left">
						<feature> 4 </feature>
						<threshold> 3.0 </threshold>
						<split pos="left">
							<output> -0.12035265564918518 </output>
						</split>
						<split pos="right">
							<feature> 7 </feature>
							<threshold> 1.1178906 </threshold>
							<split pos="left">
								<output> 0.4094997048377991 </output>
							</split>
							<split pos="right">
								<feature> 37 </feature>
								<threshold> 239.26054 </threshold>
								<split pos="left">
									<output> -0.015872549265623093 </output>
								</split>
								<split pos="right">
									<output> 0.1883070319890976 </output>
								</split>
							</split>
						</split>
					</split>
					<split pos="right">
						<output> -0.43277329206466675 </output>
					</split>
				</split>
			</split>
		</split>
	</tree>
	<tree id="27" weight="0.1">
		<split>
			<feature> 10 </feature>
			<threshold> 0.0 </threshold>
			<split pos="left">
				<feature> 8 </feature>
				<threshold> 0.0078125 </threshold>
				<split pos="left">
					<output> -0.2869228422641754 </output>
				</split>
				<split pos="right">
					<feature> 9 </feature>
					<threshold> 273.41016 </threshold>
					<split pos="left">
						<feature> 5 </feature>
						<threshold> 3.5 </threshold>
						<split pos="left">
							<output> -0.12938536703586578 </output>
						</split>
						<split pos="right">
							<feature> 8 </feature>
							<threshold> 0.265625 </threshold>
							<split pos="left">
								<feature> 9 </feature>
								<threshold> 117.17578 </threshold>
								<split pos="left">
									<output> 0.16090978682041168 </output>
								</split>
								<split pos="right">
									<output> -0.015384779311716557 </output>
								</split>
							</split>
							<split pos="right">
								<output> 0.2250029593706131 </output>
							</split>
						</split>
					</split>
					<split pos="right">
						<output> -0.32483285665512085 </output>
					</split>
				</split>
			</split>
			<split pos="right">
				<feature> 8 </feature>
				<threshold> 0.1328125 </threshold>
				<split pos="left">
					<feature> 9 </feature>
					<threshold> 234.35156 </threshold>
					<split pos="left">
						<output> 0.08968785405158997 </output>
					</split>
					<split pos="right">
						<output> -0.2665209472179413 </output>
					</split>
				</split>
				<split pos="right">
					<feature> 9 </feature>
					<threshold> 117.17578 </threshold>
					<split pos="left">
						<output> 0.31304946541786194 </output>
					</split>
					<split pos="right">
						<output> 0.1021830141544342 </output>
					</split>
				</split>
			</split>
		</split>
	</tree>
	<tree id="28" weight="0.1">
		<split>
			<feature> 8 </feature>
			<threshold> 0.265625 </threshold>
			<split pos="left">
				<feature> 4 </feature>
				<threshold> 3.0 </threshold>
				<split pos="left">
					<feature> 9 </feature>
					<threshold> 117.17578 </threshold>
					<split pos="left">
						<feature> 4 </feature>
						<threshold> 2.0 </threshold>
						<split pos="left">
							<output> -0.21226368844509125 </output>
						</split>
						<split pos="right">
							<feature> 8 </feature>
							<threshold> 0.0703125 </threshold>
							<split pos="left">
								<output> -0.007620076183229685 </output>
							</split>
							<split pos="right">
								<output> 0.14866375923156738 </output>
							</split>
						</split>
					</split>
					<split pos="right">
						<output> -0.25938326120376587 </output>
					</split>
				</split>
				<split pos="right">
					<feature> 9 </feature>
					<threshold> 117.17578 </threshold>
					<split pos="left">
						<output> 0.2578331232070923 </output>
					</split>
					<split pos="right">
						<feature> 9 </feature>
						<threshold> 234.35156 </threshold>
						<split pos="left">
							<feature> 37 </feature>
							<threshold> 239.26054 </threshold>
							<split pos="left">
								<output> -0.03152748942375183 </output>
							</split>
							<split pos="right">
								<output> 0.17357157170772552 </output>
							</split>
						</split>
						<split pos="right">
							<output> -0.23730775713920593 </output>
						</split>
					</split>
				</split>
			</split>
			<split pos="right">
				<feature> 7 </feature>
				<threshold> 3.435466 </threshold>
				<split pos="left">
					<output> 0.27833041548728943 </output>
				</split>
				<split pos="right">
					<output> 0.0723905935883522 </output>
				</split>
			</split>
		</split>
	</tree>
	<tree id="29" weight="0.1">
		<split>
			<feature> 10 </feature>
			<threshold> 0.0 </threshold>
			<split pos="left">
				<feature> 8 </feature>
				<threshold> 0.0078125 </threshold>
				<split pos="left">
					<output> -0.2554025650024414 </output>
				</split>
				<split pos="right">
					<feature> 5 </feature>
					<threshold> 3.0 </threshold>
					<split pos="left">
						<output> -0.26911091804504395 </output>
					</split>
					<split pos="right">
						<feature> 9 </feature>
						<threshold> 156.23438 </threshold>
						<split pos="left">
							<feature> 4 </feature>
							<threshold> 3.0 </threshold>
							<split pos="left">
								<output> 0.05129615217447281 </output>
							</split>
							<split pos="right">
								<output> 0.2144579440355301 </output>
							</split>
						</split>
						<split pos="right">
							<output> -0.0981692522764206 </output>
						</split>
					</split>
				</split>
			</split>
			<split pos="right">
				<feature> 8 </feature>
				<threshold> 0.1328125 </threshold>
				<split pos="left">
					<feature> 5 </feature>
					<threshold> 3.5 </threshold>
					<split pos="left">
						<output> -0.09082517772912979 </output>
					</split>
					<split pos="right">
						<output> 0.10252803564071655 </output>
					</split>
				</split>
				<split pos="right">
					<feature> 19 </feature>
					<threshold> 0.0 </threshold>
					<split pos="left">
						<feature> 7 </feature>
						<threshold> 4.1443706 </threshold>
						<split pos="left">
							<output> 0.3458722233772278 </output>
						</split>
						<split pos="right">
							<output> 0.15762951970100403 </output>
						</split>
					</split>
					<split pos="right">
						<output> -0.059962306171655655 </output>
					</split>
				</split>
			</split>
		</split>
	</tree>
	<tree id="30" weight="0.1">
		<split>
			<feature> 4 </feature>
			<threshold> 2.0 </threshold>
			<split pos="left">
				<output> -0.22018121182918549 </output>
			</split>
			<split pos="right">
				<feature> 9 </feature>
				<threshold> 117.17578 </threshold>
				<split pos="left">
					<feature> 8 </feature>
					<threshold> 0.1796875 </threshold>
					<split pos="left">
						<feature> 4 </feature>
						<threshold> 3.0 </threshold>
						<split pos="left">
							<output> 0.04034190997481346 </output>
						</split>
						<split pos="right">
							<output> 0.2231801450252533 </output>
						</split>
					</split>
					<split pos="right">
						<output> 0.3016512095928192 </output>
					</split>
				</split>
				<split pos="right">
					<feature> 9 </feature>
					<threshold> 312.46875 </threshold>
					<split pos="left">
						<feature> 37 </feature>
						<threshold> 200.21759 </threshold>
						<split pos="left">
							<feature> 9 </feature>
							<threshold> 156.23438 </threshold>
							<split pos="left">
								<output> -0.056969061493873596 </output>
							</split>
							<split pos="right">
								<output> -0.29369691014289856 </output>
							</split>
						</split>
						<split pos="right">
							<feature> 31 </feature>
							<threshold> 0.31084314 </threshold>
							<split pos="left">
								<feature> 8 </feature>
								<threshold> 0.3125 </threshold>
								<split pos="left">
									<output> 0.11804549396038055 </output>
								</split>
								<split pos="right">
									<output> 0.34709593653678894 </output>
								</split>
							</split>
							<split pos="right">
								<output> -0.011759724467992783 </output>
							</split>
						</split>
					</split>
					<split pos="right">
						<output> -0.40584978461265564 </output>
					</split>
				</split>
			</split>
		</split>
	</tree>
	<tree id="31" weight="0.1">
		<split>
			<feature> 8 </feature>
			<threshold> 0.265625 </threshold>
			<split pos="left">
				<feature> 4 </feature>
				<threshold> 3.0 </threshold>
				<split pos="left">
					<feature> 9 </feature>
					<threshold> 156.23438 </threshold>
					<split pos="left">
						<feature> 5 </feature>
						<threshold> 3.5 </threshold>
						<split pos="left">
							<output> -0.1602361500263214 </output>
						</split>
						<split pos="right">
							<feature> 9 </feature>
							<threshold> 78.11719 </threshold>
							<split pos="left">
								<output> 0.2218024879693985 </output>
							</split>
							<split pos="right">
								<output> -0.04329877719283104 </output>
							</split>
						</split>
					</split>
					<split pos="right">
						<output> -0.3449839949607849 </output>
					</split>
				</split>
				<split pos="right">
					<feature> 9 </feature>
					<threshold> 117.17578 </threshold>
					<split pos="left">
						<output> 0.2206072211265564 </output>
					</split>
					<split pos="right">
						<feature> 9 </feature>
						<threshold> 273.41016 </threshold>
						<split pos="left">
							<feature> 37 </feature>
							<threshold> 239.26054 </threshold>
							<split pos="left">
								<output> -0.04422038048505783 </output>
							</split>
							<split pos="right">
								<output> 0.12971732020378113 </output>
							</split>
						</split>
						<split pos="right">
							<output> -0.28761813044548035 </output>
						</split>
					</split>
				</split>
			</split>
			<split pos="right">
				<feature> 9 </feature>
				<threshold> 156.23438 </threshold>
				<split pos="left">
					<output> 0.21984511613845825 </output>
				</split>
				<split pos="right">
					<output> -0.004099227953702211 </output>
				</split>
			</split>
		</split>
	</tree>
	<tree id="32" weight="0.1">
		<split>
			<feature> 10 </feature>
			<threshold> 0.0 </threshold>
			<split pos="left">
				<feature> 4 </feature>
				<threshold> 2.0 </threshold>
				<split pos="left">
					<output> -0.22567066550254822 </output>
				</split>
				<split pos="right">
					<feature> 9 </feature>
					<threshold> 117.17578 </threshold>
					<split pos="left">
						<feature> 8 </feature>
						<threshold> 0.25 </threshold>
						<split pos="left">
							<output> 0.06528758257627487 </output>
						</split>
						<split pos="right">
							<output> 0.287545770406723 </output>
						</split>
					</split>
					<split pos="right">
						<feature> 9 </feature>
						<threshold> 351.52734 </threshold>
						<split pos="left">
							<feature> 37 </feature>
							<threshold> 161.17464 </threshold>
							<split pos="left">
								<output> -0.25071513652801514 </output>
							</split>
							<split pos="right">
								<feature> 31 </feature>
								<threshold> 0.3014126 </threshold>
								<split pos="left">
									<output> 0.10183362662792206 </output>
								</split>
								<split pos="right">
									<output> -0.05789292976260185 </output>
								</split>
							</split>
						</split>
						<split pos="right">
							<output> -0.45058488845825195 </output>
						</split>
					</split>
				</split>
			</split>
			<split pos="right">
				<feature> 19 </feature>
				<threshold> 0.0 </threshold>
				<split pos="left">
					<feature> 8 </feature>
					<threshold> 0.1328125 </threshold>
					<split pos="left">
						<output> 0.07877083867788315 </output>
					</split>
					<split pos="right">
						<output> 0.23355893790721893 </output>
					</split>
				</split>
				<split pos="right">
					<output> -0.06921795010566711 </output>
				</split>
			</split>
		</split>
	</tree>
	<tree id="33" weight="0.1">
		<split>
			<feature> 5 </feature>
			<threshold> 3.5 </threshold>
			<split pos="left">
				<feature> 31 </feature>
				<threshold> 0.28255156 </threshold>
				<split pos="left">
					<output> -0.01775837130844593 </output>
				</split>
				<split pos="right">
					<output> -0.1937064379453659 </output>
				</split>
			</split>
			<split pos="right">
				<feature> 9 </feature>
				<threshold> 117.17578 </threshold>
				<split pos="left">
					<feature> 8 </feature>
					<threshold> 0.203125 </threshold>
					<split pos="left">
						<feature> 4 </feature>
						<threshold> 3.0 </threshold>
						<split pos="left">
							<output> 0.06062145531177521 </output>
						</split>
						<split pos="right">
							<output> 0.24043439328670502 </output>
						</split>
					</split>
					<split pos="right">
						<output> 0.30450767278671265 </output>
					</split>
				</split>
				<split pos="right">
					<feature> 9 </feature>
					<threshold> 351.52734 </threshold>
					<split pos="left">
						<feature> 4 </feature>
						<threshold> 3.0 </threshold>
						<split pos="left">
							<output> -0.1635742485523224 </output>
						</split>
						<split pos="right">
							<feature> 8 </feature>
							<threshold> 0.265625 </threshold>
							<split pos="left">
								<feature> 9 </feature>
								<threshold> 156.23438 </threshold>
								<split pos="left">
									<output> 0.11872522532939911 </output>
								</split>
								<split pos="right">
									<output> -0.00963393971323967 </output>
								</split>
							</split>
							<split pos="right">
								<output> 0.18316896259784698 </output>
							</split>
						</split>
					</split>
					<split pos="right">
						<output> -0.4214509427547455 </output>
					</split>
				</split>
			</split>
		</split>
	</tree>
	<tree id="34" weight="0.1">
		<split>
			<feature> 8 </feature>
			<threshold> 0.015625 </threshold>
			<split pos="left">
				<output> -0.154067724943161 </output>
			</split>
			<split pos="right">
				<feature> 9 </feature>
				<threshold> 156.23438 </threshold>
				<split pos="left">
					<feature> 5 </feature>
					<threshold> 3.5 </threshold>
					<split pos="left">
						<output> -0.048608433455228806 </output>
					</split>
					<split pos="right">
						<feature> 10 </feature>
						<threshold> 0.0 </threshold>
						<split pos="left">
							<feature> 8 </feature>
							<threshold> 0.25 </threshold>
							<split pos="left">
								<output> 0.0900922566652298 </output>
							</split>
							<split pos="right">
								<output> 0.20766088366508484 </output>
							</split>
						</split>
						<split pos="right">
							<feature> 19 </feature>
							<threshold> 0.0 </threshold>
							<split pos="left">
								<feature> 8 </feature>
								<threshold> 0.1171875 </threshold>
								<split pos="left">
									<output> 0.2197658121585846 </output>
								</split>
								<split pos="right">
									<output> 0.3375779390335083 </output>
								</split>
							</split>
							<split pos="right">
								<output> -0.055245835334062576 </output>
							</split>
						</split>
					</split>
				</split>
				<split pos="right">
					<feature> 37 </feature>
					<threshold> 200.21759 </threshold>
					<split pos="left">
						<output> -0.26173749566078186 </output>
					</split>
					<split pos="right">
						<feature> 9 </feature>
						<threshold> 351.52734 </threshold>
						<split pos="left">
							<output> 0.050634972751140594 </output>
						</split>
						<split pos="right">
							<output> -0.404724657535553 </output>
						</split>
					</split>
				</split>
			</split>
		</split>
	</tree>
	<tree id="35" weight="0.1">
		<split>
			<feature> 9 </feature>
			<threshold> 234.35156 </threshold>
			<split pos="left">
				<feature> 4 </feature>
				<threshold> 3.0 </threshold>
				<split pos="left">
					<feature> 9 </feature>
					<threshold> 117.17578 </threshold>
					<split pos="left">
						<feature> 5 </feature>
						<threshold> 3.0 </threshold>
						<split pos="left">
							<output> -0.1888946294784546 </output>
						</split>
						<split pos="right">
							<feature> 8 </feature>
							<threshold> 0.21875 </threshold>
							<split pos="left">
								<feature> 9 </feature>
								<threshold> 78.11719 </threshold>
								<split pos="left">
									<output> 0.1444575935602188 </output>
								</split>
								<split pos="right">
									<output> -0.037659902125597 </output>
								</split>
							</split>
							<split pos="right">
								<output> 0.20750729739665985 </output>
							</split>
						</split>
					</split>
					<split pos="right">
						<output> -0.1568140685558319 </output>
					</split>
				</split>
				<split pos="right">
					<feature> 9 </feature>
					<threshold> 117.17578 </threshold>
					<split pos="left">
						<feature> 3 </feature>
						<threshold> 216.0 </threshold>
						<split pos="left">
							<output> 0.10250408202409744 </output>
						</split>
						<split pos="right">
							<output> 0.36365607380867004 </output>
						</split>
					</split>
					<split pos="right">
						<feature> 37 </feature>
						<threshold> 239.26054 </threshold>
						<split pos="left">
							<output> -0.00872404407709837 </output>
						</split>
						<split pos="right">
							<output> 0.17330695688724518 </output>
						</split>
					</split>
				</split>
			</split>
			<split pos="right">
				<output> -0.21580122411251068 </output>
			</split>
		</split>
	</tree>
	<tree id="36" weight="0.1">
		<split>
			<feature> 4 </feature>
			<threshold> 2.0 </threshold>
			<split pos="left">
				<output> -0.1840348243713379 </output>
			</split>
			<split pos="right">
				<feature> 9 </feature>
				<threshold> 117.17578 </threshold>
				<split pos="left">
					<feature> 8 </feature>
					<threshold> 0.1796875 </threshold>
					<split pos="left">
						<feature> 10 </feature>
						<threshold> 0.0 </threshold>
						<split pos="left">
							<output> 0.05229266360402107 </output>
						</split>
						<split pos="right">
							<output> 0.15215840935707092 </output>
						</split>
					</split>
					<split pos="right">
						<output> 0.23287956416606903 </output>
					</split>
				</split>
				<split pos="right">
					<feature> 9 </feature>
					<threshold> 273.41016 </threshold>
					<split pos="left">
						<feature> 37 </feature>
						<threshold> 161.17464 </threshold>
						<split pos="left">
							<output> -0.2016494870185852 </output>
						</split>
						<split pos="right">
							<feature> 31 </feature>
							<threshold> 0.31084314 </threshold>
							<split pos="left">
								<feature> 8 </feature>
								<threshold> 0.3125 </threshold>
								<split pos="left">
									<output> 0.08757761120796204 </output>
								</split>
								<split pos="right">
									<output> 0.2821829319000244 </output>
								</split>
							</split>
							<split pos="right">
								<feature> 4 </feature>
								<threshold> 4.0 </threshold>
								<split pos="left">
									<output> -0.04313540458679199 </output>
								</split>
								<split pos="right">
									<output> 0.16550365090370178 </output>
								</split>
							</split>
						</split>
					</split>
					<split pos="right">
						<output> -0.26230964064598083 </output>
					</split>
				</split>
			</split>
		</split>
	</tree>
	<tree id="37" weight="0.1">
		<split>
			<feature> 9 </feature>
			<threshold> 156.23438 </threshold>
			<split pos="left">
				<feature> 4 </feature>
				<threshold> 3.0 </threshold>
				<split pos="left">
					<feature> 8 </feature>
					<threshold> 0.015625 </threshold>
					<split pos="left">
						<output> -0.15129928290843964 </output>
					</split>
					<split pos="right">
						<feature> 5 </feature>
						<threshold> 3.0 </threshold>
						<split pos="left">
							<output> -0.15484747290611267 </output>
						</split>
						<split pos="right">
							<feature> 9 </feature>
							<threshold> 78.11719 </threshold>
							<split pos="left">
								<output> 0.21961335837841034 </output>
							</split>
							<split pos="right">
								<output> 0.028026152402162552 </output>
							</split>
						</split>
					</split>
				</split>
				<split pos="right">
					<feature> 3 </feature>
					<threshold> 217.0 </threshold>
					<split pos="left">
						<output> 0.07490982115268707 </output>
					</split>
					<split pos="right">
						<output> 0.2451828420162201 </output>
					</split>
				</split>
			</split>
			<split pos="right">
				<feature> 37 </feature>
				<threshold> 200.21759 </threshold>
				<split pos="left">
					<output> -0.3063027560710907 </output>
				</split>
				<split pos="right">
					<feature> 9 </feature>
					<threshold> 351.52734 </threshold>
					<split pos="left">
						<feature> 4 </feature>
						<threshold> 3.0 </threshold>
						<split pos="left">
							<output> -0.16362802684307098 </output>
						</split>
						<split pos="right">
							<output> 0.0537751242518425 </output>
						</split>
					</split>
					<split pos="right">
						<output> -0.37201642990112305 </output>
					</split>
				</split>
			</split>
		</split>
	</tree>
	<tree id="38" weight="0.1">
		<split>
			<feature> 31 </feature>
			<threshold> 0.31084314 </threshold>
			<split pos="left">
				<feature> 8 </feature>
				<threshold> 0.28125 </threshold>
				<split pos="left">
					<feature> 9 </feature>
					<threshold> 156.23438 </threshold>
					<split pos="left">
						<feature> 4 </feature>
						<threshold> 3.0 </threshold>
						<split pos="left">
							<output> 0.04197711870074272 </output>
						</split>
						<split pos="right">
							<feature> 3 </feature>
							<threshold> 216.0 </threshold>
							<split pos="left">
								<output> 0.09215384721755981 </output>
							</split>
							<split pos="right">
								<output> 0.22965861856937408 </output>
							</split>
						</split>
					</split>
					<split pos="right">
						<output> -0.0393272340297699 </output>
					</split>
				</split>
				<split pos="right">
					<output> 0.18234072625637054 </output>
				</split>
			</split>
			<split pos="right">
				<feature> 9 </feature>
				<threshold> 156.23438 </threshold>
				<split pos="left">
					<feature> 5 </feature>
					<threshold> 3.5 </threshold>
					<split pos="left">
						<output> -0.14438094198703766 </output>
					</split>
					<split pos="right">
						<feature> 8 </feature>
						<threshold> 0.2734375 </threshold>
						<split pos="left">
							<feature> 4 </feature>
							<threshold> 3.0 </threshold>
							<split pos="left">
								<output> -0.02204013802111149 </output>
							</split>
							<split pos="right">
								<output> 0.12092911452054977 </output>
							</split>
						</split>
						<split pos="right">
							<output> 0.20309075713157654 </output>
						</split>
					</split>
				</split>
				<split pos="right">
					<output> -0.1839231252670288 </output>
				</split>
			</split>
		</split>
	</tree>
	<tree id="39" weight="0.1">
		<split>
			<feature> 9 </feature>
			<threshold> 234.35156 </threshold>
			<split pos="left">
				<feature> 4 </feature>
				<threshold> 3.0 </threshold>
				<split pos="left">
					<feature> 9 </feature>
					<threshold> 78.11719 </threshold>
					<split pos="left">
						<output> 0.0781516507267952 </output>
					</split>
					<split pos="right">
						<feature> 37 </feature>
						<threshold> 122.13168 </threshold>
						<split pos="left">
							<output> -0.21620281040668488 </output>
						</split>
						<split pos="right">
							<feature> 8 </feature>
							<threshold> 0.0078125 </threshold>
							<split pos="left">
								<output> -0.21315047144889832 </output>
							</split>
							<split pos="right">
								<feature> 9 </feature>
								<threshold> 117.17578 </threshold>
								<split pos="left">
									<output> 0.0981886088848114 </output>
								</split>
								<split pos="right">
									<output> -0.04162367805838585 </output>
								</split>
							</split>
						</split>
					</split>
				</split>
				<split pos="right">
					<feature> 8 </feature>
					<threshold> 0.3671875 </threshold>
					<split pos="left">
						<feature> 6 </feature>
						<threshold> 0.0 </threshold>
						<split pos="left">
							<output> -0.0029756068252027035 </output>
						</split>
						<split pos="right">
							<feature> 9 </feature>
							<threshold> 117.17578 </threshold>
							<split pos="left">
								<output> 0.2587345838546753 </output>
							</split>
							<split pos="right">
								<output> 0.08812940865755081 </output>
							</split>
						</split>
					</split>
					<split pos="right">
						<output> 0.2287447154521942 </output>
					</split>
				</split>
			</split>
			<split pos="right">
				<output> -0.19355985522270203 </output>
			</split>
		</split>
	</tree>
	<tree id="40" weight="0.1">
		<split>
			<feature> 31 </feature>
			<threshold> 0.31084314 </threshold>
			<split pos="left">
				<feature> 8 </feature>
				<threshold> 0.28125 </threshold>
				<split pos="left">
					<feature> 9 </feature>
					<threshold> 156.23438 </threshold>
					<split pos="left">
						<feature> 5 </feature>
						<threshold> 3.5 </threshold>
						<split pos="left">
							<output> -0.00795870739966631 </output>
						</split>
						<split pos="right">
							<output> 0.1287427693605423 </output>
						</split>
					</split>
					<split pos="right">
						<output> -0.034606076776981354 </output>
					</split>
				</split>
				<split pos="right">
					<output> 0.1700846403837204 </output>
				</split>
			</split>
			<split pos="right">
				<feature> 9 </feature>
				<threshold> 117.17578 </threshold>
				<split pos="left">
					<feature> 5 </feature>
					<threshold> 3.5 </threshold>
					<split pos="left">
						<output> -0.11332450062036514 </output>
					</split>
					<split pos="right">
						<output> 0.09866215288639069 </output>
					</split>
				</split>
				<split pos="right">
					<feature> 37 </feature>
					<threshold> 122.13168 </threshold>
					<split pos="left">
						<output> -0.4877873361110687 </output>
					</split>
					<split pos="right">
						<feature> 9 </feature>
						<threshold> 312.46875 </threshold>
						<split pos="left">
							<feature> 4 </feature>
							<threshold> 4.0 </threshold>
							<split pos="left">
								<output> -0.09280513226985931 </output>
							</split>
							<split pos="right">
								<output> 0.1456824094057083 </output>
							</split>
						</split>
						<split pos="right">
							<output> -0.42082688212394714 </output>
						</split>
					</split>
				</split>
			</split>
		</split>
	</tree>
	<tree id="41" weight="0.1">
		<split>
			<feature> 4 </feature>
			<threshold> 2.0 </threshold>
			<split pos="left">
				<output> -0.1623462289571762 </output>
			</split>
			<split pos="right">
				<feature> 9 </feature>
				<threshold> 78.11719 </threshold>
				<split pos="left">
					<output> 0.23079566657543182 </output>
				</split>
				<split pos="right">
					<feature> 9 </feature>
					<threshold> 234.35156 </threshold>
					<split pos="left">
						<feature> 8 </feature>
						<threshold> 0.28125 </threshold>
						<split pos="left">
							<feature> 37 </feature>
							<threshold> 161.17464 </threshold>
							<split pos="left">
								<feature> 9 </feature>
								<threshold> 117.17578 </threshold>
								<split pos="left">
									<output> -0.02547832950949669 </output>
								</split>
								<split pos="right">
									<output> -0.19384142756462097 </output>
								</split>
							</split>
							<split pos="right">
								<feature> 9 </feature>
								<threshold> 117.17578 </threshold>
								<split pos="left">
									<output> 0.14591659605503082 </output>
								</split>
								<split pos="right">
									<feature> 31 </feature>
									<threshold> 0.34856525 </threshold>
									<split pos="left">
										<feature> 37 </feature>
										<threshold> 239.26054 </threshold>
										<split pos="left">
											<output> 0.026272621005773544 </output>
										</split>
										<split pos="right">
											<output> 0.1350734531879425 </output>
										</split>
									</split>
									<split pos="right">
										<output> -0.03905745968222618 </output>
									</split>
								</split>
							</split>
						</split>
						<split pos="right">
							<output> 0.14382795989513397 </output>
						</split>
					</split>
					<split pos="right">
						<output> -0.1636132448911667 </output>
					</split>
				</split>
			</split>
		</split>
	</tree>
	<tree id="42" weight="0.1">
		<split>
			<feature> 8 </feature>
			<threshold> 0.0078125 </threshold>
			<split pos="left">
				<output> -0.1440192312002182 </output>
			</split>
			<split pos="right">
				<feature> 9 </feature>
				<threshold> 117.17578 </threshold>
				<split pos="left">
					<feature> 5 </feature>
					<threshold> 4.0 </threshold>
					<split pos="left">
						<feature> 5 </feature>
						<threshold> 3.0 </threshold>
						<split pos="left">
							<output> -0.1156296357512474 </output>
						</split>
						<split pos="right">
							<output> 0.08240649104118347 </output>
						</split>
					</split>
					<split pos="right">
						<output> 0.22879929840564728 </output>
					</split>
				</split>
				<split pos="right">
					<feature> 37 </feature>
					<threshold> 161.17464 </threshold>
					<split pos="left">
						<output> -0.17658567428588867 </output>
					</split>
					<split pos="right">
						<feature> 9 </feature>
						<threshold> 351.52734 </threshold>
						<split pos="left">
							<feature> 7 </feature>
							<threshold> 1.1178906 </threshold>
							<split pos="left">
								<output> 0.2792814373970032 </output>
							</split>
							<split pos="right">
								<feature> 5 </feature>
								<threshold> 3.5 </threshold>
								<split pos="left">
									<output> -0.1126636192202568 </output>
								</split>
								<split pos="right">
									<feature> 4 </feature>
									<threshold> 4.0 </threshold>
									<split pos="left">
										<output> 0.025854168459773064 </output>
									</split>
									<split pos="right">
										<output> 0.20420022308826447 </output>
									</split>
								</split>
							</split>
						</split>
						<split pos="right">
							<output> -0.3093148171901703 </output>
						</split>
					</split>
				</split>
			</split>
		</split>
	</tree>
	<tree id="43" weight="0.1">
		<split>
			<feature> 31 </feature>
			<threshold> 0.31084314 </threshold>
			<split pos="left">
				<feature> 8 </feature>
				<threshold> 0.28125 </threshold>
				<split pos="left">
					<feature> 9 </feature>
					<threshold> 156.23438 </threshold>
					<split pos="left">
						<feature> 4 </feature>
						<threshold> 3.0 </threshold>
						<split pos="left">
							<output> 0.040380217134952545 </output>
						</split>
						<split pos="right">
							<feature> 6 </feature>
							<threshold> 0.0 </threshold>
							<split pos="left">
								<output> 0.024319957941770554 </output>
							</split>
							<split pos="right">
								<output> 0.19210556149482727 </output>
							</split>
						</split>
					</split>
					<split pos="right">
						<output> -0.03281955048441887 </output>
					</split>
				</split>
				<split pos="right">
					<output> 0.154356449842453 </output>
				</split>
			</split>
			<split pos="right">
				<feature> 9 </feature>
				<threshold> 156.23438 </threshold>
				<split pos="left">
					<feature> 5 </feature>
					<threshold> 4.0 </threshold>
					<split pos="left">
						<feature> 5 </feature>
						<threshold> 3.0 </threshold>
						<split pos="left">
							<output> -0.20898154377937317 </output>
						</split>
						<split pos="right">
							<feature> 9 </feature>
							<threshold> 78.11719 </threshold>
							<split pos="left">
								<output> 0.11070380359888077 </output>
							</split>
							<split pos="right">
								<output> -0.057087916880846024 </output>
							</split>
						</split>
					</split>
					<split pos="right">
						<output> 0.10663869231939316 </output>
					</split>
				</split>
				<split pos="right">
					<output> -0.16451701521873474 </output>
				</split>
			</split>
		</split>
	</tree>
	<tree id="44" weight="0.1">
		<split>
			<feature> 9 </feature>
			<threshold> 234.35156 </threshold>
			<split pos="left">
				<feature> 4 </feature>
				<threshold> 3.0 </threshold>
				<split pos="left">
					<feature> 9 </feature>
					<threshold> 78.11719 </threshold>
					<split pos="left">
						<output> 0.07577033340930939 </output>
					</split>
					<split pos="right">
						<feature> 37 </feature>
						<threshold> 122.13168 </threshold>
						<split pos="left">
							<output> -0.1992209106683731 </output>
						</split>
						<split pos="right">
							<feature> 9 </feature>
							<threshold> 156.23438 </threshold>
							<split pos="left">
								<feature> 8 </feature>
								<threshold> 0.0078125 </threshold>
								<split pos="left">
									<output> -0.1376410573720932 </output>
								</split>
								<split pos="right">
									<output> 0.047674018889665604 </output>
								</split>
							</split>
							<split pos="right">
								<output> -0.15964683890342712 </output>
							</split>
						</split>
					</split>
				</split>
				<split pos="right">
					<feature> 6 </feature>
					<threshold> 0.0 </threshold>
					<split pos="left">
						<feature> 3 </feature>
						<threshold> 215.0 </threshold>
						<split pos="left">
							<output> -0.05362427979707718 </output>
						</split>
						<split pos="right">
							<output> 0.11195815354585648 </output>
						</split>
					</split>
					<split pos="right">
						<feature> 9 </feature>
						<threshold> 117.17578 </threshold>
						<split pos="left">
							<output> 0.24023360013961792 </output>
						</split>
						<split pos="right">
							<output> 0.0990239605307579 </output>
						</split>
					</split>
				</split>
			</split>
			<split pos="right">
				<output> -0.16893690824508667 </output>
			</split>
		</split>
	</tree>
	<tree id="45" weight="0.1">
		<split>
			<feature> 4 </feature>
			<threshold> 2.0 </threshold>
			<split pos="left">
				<output> -0.14643706381320953 </output>
			</split>
			<split pos="right">
				<feature> 9 </feature>
				<threshold> 78.11719 </threshold>
				<split pos="left">
					<output> 0.21036621928215027 </output>
				</split>
				<split pos="right">
					<feature> 9 </feature>
					<threshold> 273.41016 </threshold>
					<split pos="left">
						<feature> 8 </feature>
						<threshold> 0.28125 </threshold>
						<split pos="left">
							<feature> 37 </feature>
							<threshold> 161.17464 </threshold>
							<split pos="left">
								<feature> 9 </feature>
								<threshold> 156.23438 </threshold>
								<split pos="left">
									<feature> 37 </feature>
									<threshold> 122.13168 </threshold>
									<split pos="left">
										<output> -0.13677051663398743 </output>
									</split>
									<split pos="right">
										<output> -0.006351014599204063 </output>
									</split>
								</split>
								<split pos="right">
									<output> -0.32047247886657715 </output>
								</split>
							</split>
							<split pos="right">
								<feature> 9 </feature>
								<threshold> 156.23438 </threshold>
								<split pos="left">
									<feature> 4 </feature>
									<threshold> 3.0 </threshold>
									<split pos="left">
										<output> 0.04189155623316765 </output>
									</split>
									<split pos="right">
										<output> 0.11690909415483475 </output>
									</split>
								</split>
								<split pos="right">
									<output> -0.012846472673118114 </output>
								</split>
							</split>
						</split>
						<split pos="right">
							<output> 0.12155193835496902 </output>
						</split>
					</split>
					<split pos="right">
						<output> -0.2007816880941391 </output>
					</split>
				</split>
			</split>
		</split>
	</tree>
	<tree id="46" weight="0.1">
		<split>
			<feature> 31 </feature>
			<threshold> 0.31084314 </threshold>
			<split pos="left">
				<feature> 8 </feature>
				<threshold> 0.28125 </threshold>
				<split pos="left">
					<feature> 9 </feature>
					<threshold> 78.11719 </threshold>
					<split pos="left">
						<output> 0.1546725183725357 </output>
					</split>
					<split pos="right">
						<feature> 4 </feature>
						<threshold> 4.0 </threshold>
						<split pos="left">
							<feature> 5 </feature>
							<threshold> 3.5 </threshold>
							<split pos="left">
								<output> -0.1007717028260231 </output>
							</split>
							<split pos="right">
								<output> 0.023823130875825882 </output>
							</split>
						</split>
						<split pos="right">
							<output> 0.18320348858833313 </output>
						</split>
					</split>
				</split>
				<split pos="right">
					<output> 0.13876952230930328 </output>
				</split>
			</split>
			<split pos="right">
				<feature> 9 </feature>
				<threshold> 156.23438 </threshold>
				<split pos="left">
					<feature> 5 </feature>
					<threshold> 4.0 </threshold>
					<split pos="left">
						<feature> 8 </feature>
						<threshold> 0.5859375 </threshold>
						<split pos="left">
							<feature> 5 </feature>
							<threshold> 3.0 </threshold>
							<split pos="left">
								<output> -0.196616068482399 </output>
							</split>
							<split pos="right">
								<output> -0.02285861223936081 </output>
							</split>
						</split>
						<split pos="right">
							<output> 0.1653558760881424 </output>
						</split>
					</split>
					<split pos="right">
						<output> 0.09608703851699829 </output>
					</split>
				</split>
				<split pos="right">
					<output> -0.1514950692653656 </output>
				</split>
			</split>
		</split>
	</tree>
	<tree id="47" weight="0.1">
		<split>
			<feature> 9 </feature>
			<threshold> 117.17578 </threshold>
			<split pos="left">
				<feature> 4 </feature>
				<threshold> 3.0 </threshold>
				<split pos="left">
					<feature> 8 </feature>
					<threshold> 0.2890625 </threshold>
					<split pos="left">
						<feature> 5 </feature>
						<threshold> 4.0 </threshold>
						<split pos="left">
							<feature> 31 </feature>
							<threshold> 0.25425997 </threshold>
							<split pos="left">
								<output> 0.06185675784945488 </output>
							</split>
							<split pos="right">
								<output> -0.07478639483451843 </output>
							</split>
						</split>
						<split pos="right">
							<output> 0.10665494203567505 </output>
						</split>
					</split>
					<split pos="right">
						<output> 0.14037702977657318 </output>
					</split>
				</split>
				<split pos="right">
					<output> 0.146509051322937 </output>
				</split>
			</split>
			<split pos="right">
				<feature> 37 </feature>
				<threshold> 161.17464 </threshold>
				<split pos="left">
					<output> -0.21330773830413818 </output>
				</split>
				<split pos="right">
					<feature> 9 </feature>
					<threshold> 234.35156 </threshold>
					<split pos="left">
						<feature> 4 </feature>
						<threshold> 3.0 </threshold>
						<split pos="left">
							<output> -0.048271387815475464 </output>
						</split>
						<split pos="right">
							<feature> 37 </feature>
							<threshold> 239.26054 </threshold>
							<split pos="left">
								<output> -0.006150650326162577 </output>
							</split>
							<split pos="right">
								<output> 0.13449260592460632 </output>
							</split>
						</split>
					</split>
					<split pos="right">
						<output> -0.13354960083961487 </output>
					</split>
				</split>
			</split>
		</split>
	</tree>
	<tree id="48" weight="0.1">
		<split>
			<feature> 8 </feature>
			<threshold> 0.0078125 </threshold>
			<split pos="left">
				<output> -0.12388338148593903 </output>
			</split>
			<split pos="right">
				<feature> 9 </feature>
				<threshold> 117.17578 </threshold>
				<split pos="left">
					<feature> 5 </feature>
					<threshold> 4.0 </threshold>
					<split pos="left">
						<feature> 5 </feature>
						<threshold> 3.0 </threshold>
						<split pos="left">
							<output> -0.0824233740568161 </output>
						</split>
						<split pos="right">
							<feature> 19 </feature>
							<threshold> 0.0 </threshold>
							<split pos="left">
								<output> 0.11305835098028183 </output>
							</split>
							<split pos="right">
								<output> -0.08235758543014526 </output>
							</split>
						</split>
					</split>
					<split pos="right">
						<output> 0.18832258880138397 </output>
					</split>
				</split>
				<split pos="right">
					<feature> 4 </feature>
					<threshold> 2.0 </threshold>
					<split pos="left">
						<output> -0.3159651458263397 </output>
					</split>
					<split pos="right">
						<feature> 9 </feature>
						<threshold> 390.58594 </threshold>
						<split pos="left">
							<feature> 37 </feature>
							<threshold> 239.26054 </threshold>
							<split pos="left">
								<output> -0.04784209653735161 </output>
							</split>
							<split pos="right">
								<feature> 31 </feature>
								<threshold> 0.31084314 </threshold>
								<split pos="left">
									<output> 0.1328982710838318 </output>
								</split>
								<split pos="right">
									<output> 0.02520187944173813 </output>
								</split>
							</split>
						</split>
						<split pos="right">
							<output> -0.33320343494415283 </output>
						</split>
					</split>
				</split>
			</split>
		</split>
	</tree>
	<tree id="49" weight="0.1">
		<split>
			<feature> 31 </feature>
			<threshold> 0.2259684 </threshold>
			<split pos="left">
				<feature> 4 </feature>
				<threshold> 2.0 </threshold>
				<split pos="left">
					<output> -0.07617738097906113 </output>
				</split>
				<split pos="right">
					<feature> 9 </feature>
					<threshold> 78.11719 </threshold>
					<split pos="left">
						<output> 0.2378568947315216 </output>
					</split>
					<split pos="right">
						<feature> 37 </feature>
						<threshold> 161.17464 </threshold>
						<split pos="left">
							<output> -0.01877249963581562 </output>
						</split>
						<split pos="right">
							<output> 0.10861089080572128 </output>
						</split>
					</split>
				</split>
			</split>
			<split pos="right">
				<feature> 8 </feature>
				<threshold> 0.359375 </threshold>
				<split pos="left">
					<feature> 9 </feature>
					<threshold> 195.29297 </threshold>
					<split pos="left">
						<feature> 5 </feature>
						<threshold> 4.0 </threshold>
						<split pos="left">
							<feature> 9 </feature>
							<threshold> 78.11719 </threshold>
							<split pos="left">
								<output> 0.018007947131991386 </output>
							</split>
							<split pos="right">
								<feature> 4 </feature>
								<threshold> 2.0 </threshold>
								<split pos="left">
									<output> -0.24934302270412445 </output>
								</split>
								<split pos="right">
									<output> -0.05773000791668892 </output>
								</split>
							</split>
						</split>
						<split pos="right">
							<output> 0.0581454373896122 </output>
						</split>
					</split>
					<split pos="right">
						<output> -0.17359420657157898 </output>
					</split>
				</split>
				<split pos="right">
					<output> 0.08897966146469116 </output>
				</split>
			</split>
		</split>
	</tree>
	<tree id="50" weight="0.1">
		<split>
			<feature> 9 </feature>
			<threshold> 156.23438 </threshold>
			<split pos="left">
				<feature> 4 </feature>
				<threshold> 3.0 </threshold>
				<split pos="left">
					<feature> 9 </feature>
					<threshold> 78.11719 </threshold>
					<split pos="left">
						<output> 0.06988334655761719 </output>
					</split>
					<split pos="right">
						<feature> 37 </feature>
						<threshold> 122.13168 </threshold>
						<split pos="left">
							<output> -0.15588760375976562 </output>
						</split>
						<split pos="right">
							<feature> 8 </feature>
							<threshold> 0.0078125 </threshold>
							<split pos="left">
								<output> -0.1166798397898674 </output>
							</split>
							<split pos="right">
								<output> 0.041010499000549316 </output>
							</split>
						</split>
					</split>
				</split>
				<split pos="right">
					<feature> 3 </feature>
					<threshold> 215.0 </threshold>
					<split pos="left">
						<output> 0.031282708048820496 </output>
					</split>
					<split pos="right">
						<feature> 9 </feature>
						<threshold> 78.11719 </threshold>
						<split pos="left">
							<output> 0.4576196074485779 </output>
						</split>
						<split pos="right">
							<output> 0.1408342868089676 </output>
						</split>
					</split>
				</split>
			</split>
			<split pos="right">
				<feature> 37 </feature>
				<threshold> 239.26054 </threshold>
				<split pos="left">
					<output> -0.19734922051429749 </output>
				</split>
				<split pos="right">
					<feature> 9 </feature>
					<threshold> 312.46875 </threshold>
					<split pos="left">
						<output> 0.05364033952355385 </output>
					</split>
					<split pos="right">
						<output> -0.1957329362630844 </output>
					</split>
				</split>
			</split>
		</split>
	</tree>
	<tree id="51" weight="0.1">
		<split>
			<feature> 9 </feature>
			<threshold> 117.17578 </threshold>
			<split pos="left">
				<feature> 4 </feature>
				<threshold> 3.0 </threshold>
				<split pos="left">
					<feature> 4 </feature>
					<threshold> 2.0 </threshold>
					<split pos="left">
						<output> -0.0693381056189537 </output>
					</split>
					<split pos="right">
						<feature> 8 </feature>
						<threshold> 0.28125 </threshold>
						<split pos="left">
							<output> 0.03981161490082741 </output>
						</split>
						<split pos="right">
							<output> 0.18515262007713318 </output>
						</split>
					</split>
				</split>
				<split pos="right">
					<feature> 3 </feature>
					<threshold> 216.0 </threshold>
					<split pos="left">
						<output> 0.03900807350873947 </output>
					</split>
					<split pos="right">
						<output> 0.2485436350107193 </output>
					</split>
				</split>
			</split>
			<split pos="right">
				<feature> 4 </feature>
				<threshold> 3.0 </threshold>
				<split pos="left">
					<output> -0.1458953469991684 </output>
				</split>
				<split pos="right">
					<feature> 9 </feature>
					<threshold> 390.58594 </threshold>
					<split pos="left">
						<feature> 37 </feature>
						<threshold> 239.26054 </threshold>
						<split pos="left">
							<output> -0.04219428077340126 </output>
						</split>
						<split pos="right">
							<feature> 8 </feature>
							<threshold> 0.5 </threshold>
							<split pos="left">
								<output> 0.07024581730365753 </output>
							</split>
							<split pos="right">
								<output> 0.23075613379478455 </output>
							</split>
						</split>
					</split>
					<split pos="right">
						<output> -0.29101625084877014 </output>
					</split>
				</split>
			</split>
		</split>
	</tree>
	<tree id="52" weight="0.1">
		<split>
			<feature> 31 </feature>
			<threshold> 0.31084314 </threshold>
			<split pos="left">
				<feature> 8 </feature>
				<threshold> 0.359375 </threshold>
				<split pos="left">
					<feature> 9 </feature>
					<threshold> 117.17578 </threshold>
					<split pos="left">
						<output> 0.08621437847614288 </output>
					</split>
					<split pos="right">
						<feature> 4 </feature>
						<threshold> 4.0 </threshold>
						<split pos="left">
							<output> -0.029934674501419067 </output>
						</split>
						<split pos="right">
							<output> 0.16894178092479706 </output>
						</split>
					</split>
				</split>
				<split pos="right">
					<output> 0.14741025865077972 </output>
				</split>
			</split>
			<split pos="right">
				<feature> 9 </feature>
				<threshold> 195.29297 </threshold>
				<split pos="left">
					<feature> 5 </feature>
					<threshold> 3.5 </threshold>
					<split pos="left">
						<output> -0.10310343652963638 </output>
					</split>
					<split pos="right">
						<feature> 9 </feature>
						<threshold> 78.11719 </threshold>
						<split pos="left">
							<output> 0.18064038455486298 </output>
						</split>
						<split pos="right">
							<feature> 37 </feature>
							<threshold> 122.13168 </threshold>
							<split pos="left">
								<output> -0.1773427575826645 </output>
							</split>
							<split pos="right">
								<feature> 8 </feature>
								<threshold> 0.3671875 </threshold>
								<split pos="left">
									<output> 0.01898219622671604 </output>
								</split>
								<split pos="right">
									<output> 0.11575328558683395 </output>
								</split>
							</split>
						</split>
					</split>
				</split>
				<split pos="right">
					<output> -0.1735697090625763 </output>
				</split>
			</split>
		</split>
	</tree>
	<tree id="53" weight="0.1">
		<split>
			<feature> 9 </feature>
			<threshold> 234.35156 </threshold>
			<split pos="left">
				<feature> 4 </feature>
				<threshold> 3.0 </threshold>
				<split pos="left">
					<feature> 9 </feature>
					<threshold> 78.11719 </threshold>
					<split pos="left">
						<output> 0.06522335112094879 </output>
					</split>
					<split pos="right">
						<feature> 37 </feature>
						<threshold> 83.08873 </threshold>
						<split pos="left">
							<output> -0.44648465514183044 </output>
						</split>
						<split pos="right">
							<feature> 9 </feature>
							<threshold> 156.23438 </threshold>
							<split pos="left">
								<output> -0.026469696313142776 </output>
							</split>
							<split pos="right">
								<output> -0.15674249827861786 </output>
							</split>
						</split>
					</split>
				</split>
				<split pos="right">
					<feature> 6 </feature>
					<threshold> 0.0 </threshold>
					<split pos="left">
						<output> -0.004356355406343937 </output>
					</split>
					<split pos="right">
						<feature> 9 </feature>
						<threshold> 78.11719 </threshold>
						<split pos="left">
							<output> 0.3689119517803192 </output>
						</split>
						<split pos="right">
							<feature> 8 </feature>
							<threshold> 0.4921875 </threshold>
							<split pos="left">
								<feature> 37 </feature>
								<threshold> 200.21759 </threshold>
								<split pos="left">
									<output> 0.024722250178456306 </output>
								</split>
								<split pos="right">
									<output> 0.14050154387950897 </output>
								</split>
							</split>
							<split pos="right">
								<output> 0.3124544024467468 </output>
							</split>
						</split>
					</split>
				</split>
			</split>
			<split pos="right">
				<output> -0.1395893096923828 </output>
			</split>
		</split>
	</tree>
	<tree id="54" weight="0.1">
		<split>
			<feature> 31 </feature>
			<threshold> 0.34856525 </threshold>
			<split pos="left">
				<feature> 4 </feature>
				<threshold> 2.0 </threshold>
				<split pos="left">
					<output> -0.08257587254047394 </output>
				</split>
				<split pos="right">
					<feature> 9 </feature>
					<threshold> 78.11719 </threshold>
					<split pos="left">
						<output> 0.19622157514095306 </output>
					</split>
					<split pos="right">
						<feature> 9 </feature>
						<threshold> 273.41016 </threshold>
						<split pos="left">
							<feature> 37 </feature>
							<threshold> 200.21759 </threshold>
							<split pos="left">
								<output> -0.004473237320780754 </output>
							</split>
							<split pos="right">
								<feature> 8 </feature>
								<threshold> 0.3359375 </threshold>
								<split pos="left">
									<output> 0.09055545181035995 </output>
								</split>
								<split pos="right">
									<output> 0.21167737245559692 </output>
								</split>
							</split>
						</split>
						<split pos="right">
							<output> -0.10655829310417175 </output>
						</split>
					</split>
				</split>
			</split>
			<split pos="right">
				<feature> 9 </feature>
				<threshold> 117.17578 </threshold>
				<split pos="left">
					<feature> 8 </feature>
					<threshold> 0.25 </threshold>
					<split pos="left">
						<output> -0.017803382128477097 </output>
					</split>
					<split pos="right">
						<output> 0.10399758815765381 </output>
					</split>
				</split>
				<split pos="right">
					<feature> 4 </feature>
					<threshold> 2.0 </threshold>
					<split pos="left">
						<output> -0.373038113117218 </output>
					</split>
					<split pos="right">
						<output> -0.08356954157352448 </output>
					</split>
				</split>
			</split>
		</split>
	</tree>
	<tree id="55" weight="0.1">
		<split>
			<feature> 5 </feature>
			<threshold> 3.5 </threshold>
			<split pos="left">
				<feature> 9 </feature>
				<threshold> 78.11719 </threshold>
				<split pos="left">
					<output> 0.008368372917175293 </output>
				</split>
				<split pos="right">
					<output> -0.1222456768155098 </output>
				</split>
			</split>
			<split pos="right">
				<feature> 9 </feature>
				<threshold> 78.11719 </threshold>
				<split pos="left">
					<output> 0.17651118338108063 </output>
				</split>
				<split pos="right">
					<feature> 37 </feature>
					<threshold> 122.13168 </threshold>
					<split pos="left">
						<output> -0.14116908609867096 </output>
					</split>
					<split pos="right">
						<feature> 9 </feature>
						<threshold> 156.23438 </threshold>
						<split pos="left">
							<feature> 8 </feature>
							<threshold> 0.28125 </threshold>
							<split pos="left">
								<feature> 4 </feature>
								<threshold> 4.0 </threshold>
								<split pos="left">
									<feature> 31 </feature>
									<threshold> 0.17881577 </threshold>
									<split pos="left">
										<output> 0.14218522608280182 </output>
									</split>
									<split pos="right">
